FANN_FLO_2.1
num_layers=3
learning_rate=0.800000
connection_rate=1.000000
network_type=0
learning_momentum=0.300000
training_algorithm=2
train_error_function=0
train_stop_function=0
cascade_output_change_fraction=0.010000
quickprop_decay=-0.000100
quickprop_mu=1.750000
rprop_increase_factor=1.200000
rprop_decrease_factor=0.500000
rprop_delta_min=0.000000
rprop_delta_max=50.000000
rprop_delta_zero=0.100000
cascade_output_stagnation_epochs=12
cascade_candidate_change_fraction=0.010000
cascade_candidate_stagnation_epochs=12
cascade_max_out_epochs=150
cascade_min_out_epochs=50
cascade_max_cand_epochs=150
cascade_min_cand_epochs=50
cascade_num_candidate_groups=2
bit_fail_limit=3.49999994039535520000e-001
cascade_candidate_limit=1.00000000000000000000e+003
cascade_weight_multiplier=4.00000005960464480000e-001
cascade_activation_functions_count=10
cascade_activation_functions=3 5 7 8 10 11 14 15 16 17 
cascade_activation_steepnesses_count=4
cascade_activation_steepnesses=2.50000000000000000000e-001 5.00000000000000000000e-001 7.50000000000000000000e-001 1.00000000000000000000e+000 
layer_sizes=33 15 4 
scale_included=0
neurons (num_inputs, activation_function, activation_steepness)=(0, 0, 0.00000000000000000000e+000) (0, 0, 0.00000000000000000000e+000) (0, 0, 0.00000000000000000000e+000) (0, 0, 0.00000000000000000000e+000) (0, 0, 0.00000000000000000000e+000) (0, 0, 0.00000000000000000000e+000) (0, 0, 0.00000000000000000000e+000) (0, 0, 0.00000000000000000000e+000) (0, 0, 0.00000000000000000000e+000) (0, 0, 0.00000000000000000000e+000) (0, 0, 0.00000000000000000000e+000) (0, 0, 0.00000000000000000000e+000) (0, 0, 0.00000000000000000000e+000) (0, 0, 0.00000000000000000000e+000) (0, 0, 0.00000000000000000000e+000) (0, 0, 0.00000000000000000000e+000) (0, 0, 0.00000000000000000000e+000) (0, 0, 0.00000000000000000000e+000) (0, 0, 0.00000000000000000000e+000) (0, 0, 0.00000000000000000000e+000) (0, 0, 0.00000000000000000000e+000) (0, 0, 0.00000000000000000000e+000) (0, 0, 0.00000000000000000000e+000) (0, 0, 0.00000000000000000000e+000) (0, 0, 0.00000000000000000000e+000) (0, 0, 0.00000000000000000000e+000) (0, 0, 0.00000000000000000000e+000) (0, 0, 0.00000000000000000000e+000) (0, 0, 0.00000000000000000000e+000) (0, 0, 0.00000000000000000000e+000) (0, 0, 0.00000000000000000000e+000) (0, 0, 0.00000000000000000000e+000) (0, 0, 0.00000000000000000000e+000) (33, 4, 5.50000011920928960000e-001) (33, 4, 5.50000011920928960000e-001) (33, 4, 5.50000011920928960000e-001) (33, 4, 5.50000011920928960000e-001) (33, 4, 5.50000011920928960000e-001) (33, 4, 5.50000011920928960000e-001) (33, 4, 5.50000011920928960000e-001) (33, 4, 5.50000011920928960000e-001) (33, 4, 5.50000011920928960000e-001) (33, 4, 5.50000011920928960000e-001) (33, 4, 5.50000011920928960000e-001) (33, 4, 5.50000011920928960000e-001) (33, 4, 5.50000011920928960000e-001) (33, 4, 5.50000011920928960000e-001) (0, 4, 5.50000011920928960000e-001) (15, 5, 7.25000023841857910000e-001) (15, 5, 7.25000023841857910000e-001) (15, 5, 7.25000023841857910000e-001) (0, 5, 7.25000023841857910000e-001) 
connections (connected_to_neuron, weight)=(0, 1.15904815495014190000e-001) (1, 5.01546680927276610000e-001) (2, 1.49800646305084230000e+000) (3, 3.44299495220184330000e-001) (4, 6.10306680202484130000e-001) (5, 6.53829514980316160000e-001) (6, -4.91977751255035400000e-001) (7, -1.81340008974075320000e-001) (8, -1.23831234872341160000e-001) (9, -9.58066165447235110000e-001) (10, -8.33688259124755860000e-001) (11, 2.76812374591827390000e-001) (12, 1.34168267250061040000e+000) (13, -1.02890230715274810000e-001) (14, 1.19431219995021820000e-001) (15, -4.14860159158706670000e-001) (16, -5.24061731994152070000e-002) (17, 8.03475558757781980000e-001) (18, 1.44629299640655520000e-001) (19, 2.32928529381752010000e-001) (20, 6.65970742702484130000e-001) (21, 6.02651000022888180000e-001) (22, 5.51588773727416990000e-001) (23, 4.87322300672531130000e-001) (24, 4.07960772514343260000e-001) (25, 3.05769205093383790000e-001) (26, 1.82245880365371700000e-001) (27, 1.78875610232353210000e-001) (28, 3.22908937931060790000e-001) (29, -1.60139538347721100000e-002) (30, -1.65639314800500870000e-002) (31, 7.80151411890983580000e-002) (32, 1.89390659332275390000e-001) (0, 1.09477114677429200000e+000) (1, -5.99263668060302730000e-001) (2, -1.69284284114837650000e+000) (3, 1.51371538639068600000e+000) (4, -2.49104827642440800000e-001) (5, -8.42662513256073000000e-001) (6, 1.44564795494079590000e+000) (7, 1.10224103927612300000e+000) (8, -3.98801147937774660000e-001) (9, 1.97280734777450560000e-001) (10, 1.86194926500320430000e-002) (11, -6.14454567432403560000e-001) (12, -3.50066810846328740000e-001) (13, -1.58972099423408510000e-001) (14, -1.70629322528839110000e-001) (15, 4.70499128103256230000e-001) (16, 2.42736488580703740000e-001) (17, -5.46460151672363280000e-001) (18, 5.37725329399108890000e-001) (19, 3.10289829969406130000e-001) (20, -1.56917408108711240000e-001) (21, -2.73475050926208500000e-001) (22, -1.11867479979991910000e-001) (23, -3.51760625839233400000e-001) (24, -3.29092234373092650000e-001) (25, -1.39893651008605960000e-001) (26, -1.60343512892723080000e-001) (27, -1.49195656180381770000e-001) (28, -1.40776157379150390000e-001) (29, -9.96704325079917910000e-002) (30, 7.70694687962532040000e-002) (31, -5.87646476924419400000e-002) (32, 2.08887052536010740000e+000) (0, -3.00946831703186040000e-001) (1, -5.47108829021453860000e-001) (2, -8.09944987297058110000e-001) (3, 1.10418707132339480000e-001) (4, 6.86421245336532590000e-002) (5, -2.73694992065429690000e-001) (6, -6.70826882123947140000e-002) (7, -2.98971533775329590000e-001) (8, -2.09023326635360720000e-001) (9, 7.04084157943725590000e-001) (10, 3.23015570640563960000e-001) (11, -7.44965314865112300000e-001) (12, -5.34657597541809080000e-001) (13, 2.50551998615264890000e-001) (14, 9.77060571312904360000e-002) (15, 1.16858690977096560000e-001) (16, 2.33686178922653200000e-001) (17, -2.75641292333602910000e-001) (18, 1.50939971208572390000e-001) (19, -7.02941894531250000000e-001) (20, -7.07438886165618900000e-001) (21, -4.22676384449005130000e-001) (22, -4.11815762519836430000e-001) (23, -3.31139504909515380000e-001) (24, -3.25077921152114870000e-001) (25, -2.31276646256446840000e-001) (26, -1.50928437709808350000e-001) (27, 6.20424840599298480000e-003) (28, -7.04420566558837890000e-001) (29, 7.89284631609916690000e-002) (30, 6.77947476506233220000e-002) (31, 9.27795395255088810000e-002) (32, -3.06180834770202640000e-001) (0, 3.09124380350112920000e-001) (1, 4.91769574582576750000e-002) (2, 6.99803650379180910000e-001) (3, 4.81647551059722900000e-001) (4, 3.16806696355342860000e-002) (5, 2.95226424932479860000e-001) (6, -3.17337691783905030000e-001) (7, 6.76440075039863590000e-002) (8, 3.88230502605438230000e-001) (9, 9.88054335117340090000e-001) (10, 1.67606443166732790000e-001) (11, -7.36418902873992920000e-001) (12, -2.73968189954757690000e-001) (13, -2.50639945268630980000e-001) (14, -1.19510926306247710000e-001) (15, -4.72635477781295780000e-002) (16, -1.90891653299331670000e-001) (17, -4.92115139961242680000e-001) (18, -2.62732982635498050000e-001) (19, -3.74600976705551150000e-001) (20, -5.92258155345916750000e-001) (21, -5.02368569374084470000e-001) (22, -1.92181810736656190000e-001) (23, -2.41326808929443360000e-001) (24, -1.94978058338165280000e-001) (25, -7.34742656350135800000e-002) (26, -1.81631639599800110000e-001) (27, -2.08367500454187390000e-002) (28, -2.01089024543762210000e-001) (29, 1.01535439491271970000e-001) (30, 1.36817529797554020000e-001) (31, -8.43933150172233580000e-002) (32, 7.19071805477142330000e-001) (0, 1.77148669958114620000e-001) (1, -2.52069890499114990000e-001) (2, -7.05742299556732180000e-001) (3, 4.87992465496063230000e-001) (4, -4.28735196590423580000e-001) (5, -4.12971943616867070000e-001) (6, 1.53542593121528630000e-001) (7, 2.05875545740127560000e-001) (8, 2.48615786433219910000e-001) (9, 1.41686603426933290000e-001) (10, 1.61799952387809750000e-001) (11, 6.94997429847717290000e-001) (12, 4.13210660219192500000e-001) (13, 1.88339333981275560000e-002) (14, 2.43355467915534970000e-001) (15, 3.23237150907516480000e-001) (16, 9.07552242279052730000e-002) (17, 2.79262542724609380000e-001) (18, 4.71488207578659060000e-001) (19, 4.55027163028717040000e-001) (20, 6.54022037982940670000e-001) (21, 4.41198915243148800000e-001) (22, 4.25084739923477170000e-001) (23, 2.38383218646049500000e-001) (24, 2.67017722129821780000e-001) (25, 8.75976309180259700000e-002) (26, -4.70781289041042330000e-002) (27, 9.59737449884414670000e-002) (28, 7.48476803302764890000e-001) (29, 1.17689251899719240000e-001) (30, -9.16477963328361510000e-002) (31, 2.53173839300870900000e-002) (32, 2.88310378789901730000e-001) (0, -3.42430067062377930000e+000) (1, 7.02122807502746580000e-001) (2, 3.47341442108154300000e+000) (3, 7.33177781105041500000e-001) (4, -1.08706331253051760000e+000) (5, -2.11915922164916990000e+000) (6, -6.08621895313262940000e-001) (7, -7.97900533676147460000e+000) (8, -1.70217895507812500000e+000) (9, -1.80474150180816650000e+000) (10, -1.02654859423637390000e-001) (11, -2.09434196352958680000e-001) (12, 3.36913555860519410000e-001) (13, 1.78618922829627990000e-001) (14, 4.67480495572090150000e-002) (15, -6.25316023826599120000e-001) (16, -7.68849492073059080000e-001) (17, 6.17444925010204320000e-002) (18, -1.06467413902282710000e+000) (19, -1.02559670805931090000e-001) (20, -4.74874526262283330000e-001) (21, -2.95708239078521730000e-001) (22, -2.17047199606895450000e-001) (23, 3.48636776208877560000e-001) (24, 2.45726276189088820000e-002) (25, -2.00832393020391460000e-002) (26, -1.14071048796176910000e-001) (27, -1.20632767677307130000e-001) (28, 5.15309512615203860000e-001) (29, 7.79253691434860230000e-002) (30, 8.66658613085746770000e-002) (31, -3.65661643445491790000e-002) (32, -1.38234233856201170000e+000) (0, 2.13068222999572750000e+000) (1, -1.46243667602539060000e+000) (2, -1.58792936801910400000e+000) (3, -4.77399453520774840000e-002) (4, -1.09320831298828120000e+000) (5, 2.19563555717468260000e+000) (6, 2.92886781692504880000e+000) (7, -3.53732764720916750000e-001) (8, 2.02823624014854430000e-001) (9, 1.06259131431579590000e+000) (10, 1.67967844754457470000e-002) (11, -1.57241904735565190000e+000) (12, -6.09287142753601070000e-001) (13, 4.18844759464263920000e-001) (14, 1.24523118138313290000e-001) (15, 1.14310756325721740000e-001) (16, -1.42190083861351010000e-001) (17, -3.38072106242179870000e-002) (18, 6.75344109535217290000e-001) (19, 1.41667246818542480000e+000) (20, 6.46313011646270750000e-001) (21, 1.44839156419038770000e-002) (22, -4.74868327379226680000e-001) (23, -3.11113029718399050000e-001) (24, -3.79320591688156130000e-001) (25, -4.02771592140197750000e-001) (26, 8.49520042538642880000e-002) (27, 2.46383831836283210000e-003) (28, -5.87877750396728520000e-001) (29, -1.04861006140708920000e-001) (30, 1.14849433302879330000e-001) (31, -8.32214355468750000000e-002) (32, 1.05199813842773440000e+000) (0, -1.85799705982208250000e+000) (1, -6.06292486190795900000e-002) (2, 1.86428177356719970000e+000) (3, -2.49361896514892580000e+000) (4, 7.63477206230163570000e-001) (5, 6.22127711772918700000e-001) (6, -2.80153226852416990000e+000) (7, -1.00176858901977540000e+000) (8, 1.94647371768951420000e-001) (9, 8.15829992294311520000e-001) (10, 5.75542211532592770000e-001) (11, -2.96402394771575930000e-001) (12, -4.24273043870925900000e-001) (13, -4.17467206716537480000e-001) (14, -2.33936816453933720000e-001) (15, 3.23155701160430910000e-001) (16, -3.92602384090423580000e-001) (17, -6.17507278919219970000e-001) (18, -7.40443289279937740000e-001) (19, -7.03114449977874760000e-001) (20, -8.11896145343780520000e-001) (21, -4.87318754196166990000e-001) (22, -4.48528707027435300000e-001) (23, -3.19914072751998900000e-001) (24, -2.92614519596099850000e-001) (25, -8.48587718792259690000e-004) (26, 1.00126348435878750000e-001) (27, -9.70551569480448960000e-004) (28, -7.18406379222869870000e-001) (29, -2.91144624352455140000e-002) (30, 2.00262531638145450000e-001) (31, 9.58312973380088810000e-002) (32, -1.88887417316436770000e+000) (0, -1.25321519374847410000e+000) (1, 3.96461367607116700000e-001) (2, 1.71888315677642820000e+000) (3, -5.88351368904113770000e-001) (4, 5.73539555072784420000e-001) (5, 3.91569256782531740000e-001) (6, -1.78125548362731930000e+000) (7, -1.29774689674377440000e+000) (8, 3.08903843164443970000e-001) (9, 7.18540102243423460000e-002) (10, -3.32025475800037380000e-002) (11, 3.13181847333908080000e-001) (12, 3.56854468584060670000e-001) (13, 2.80341178178787230000e-001) (14, 1.92342489957809450000e-001) (15, -1.80272027850151060000e-001) (16, -7.77446925640106200000e-002) (17, 3.51912945508956910000e-001) (18, -4.57718163728713990000e-001) (19, -8.03099989891052250000e-001) (20, -3.76690804958343510000e-001) (21, 6.63100481033325200000e-002) (22, 2.22718343138694760000e-001) (23, 3.85533004999160770000e-001) (24, 2.27891579270362850000e-001) (25, 1.29630029201507570000e-001) (26, 3.98802608251571660000e-002) (27, -4.71358560025691990000e-003) (28, 5.53976967930793760000e-002) (29, -5.09644374251365660000e-002) (30, 6.64378702640533450000e-002) (31, -6.19506835937500000000e-002) (32, -2.60759425163269040000e+000) (0, 1.06678858399391170000e-001) (1, -3.75321179628372190000e-001) (2, -1.19796431064605710000e+000) (3, 1.01784944534301760000e+000) (4, -3.02982479333877560000e-001) (5, -3.57494682073593140000e-001) (6, -9.66394916176795960000e-002) (7, -3.28845828771591190000e-001) (8, 5.22012710571289060000e-001) (9, 4.53061103820800780000e-001) (10, 3.11679959297180180000e-001) (11, 9.70803558826446530000e-001) (12, 5.82769691944122310000e-001) (13, 1.79189488291740420000e-001) (14, 4.31702166795730590000e-001) (15, 1.82475090026855470000e-001) (16, 6.23314976692199710000e-002) (17, 2.56403148174285890000e-001) (18, 3.89755547046661380000e-001) (19, 1.79734587669372560000e-001) (20, 7.51685142517089840000e-001) (21, 5.20348012447357180000e-001) (22, 3.03708016872406010000e-001) (23, 3.63598942756652830000e-001) (24, 3.23440790176391600000e-001) (25, 2.26534366607666020000e-001) (26, -8.43076333403587340000e-002) (27, -4.12149727344512940000e-002) (28, 7.03838169574737550000e-001) (29, 1.99772253632545470000e-001) (30, -1.45458385348320010000e-001) (31, -1.13891605287790300000e-002) (32, 3.39934080839157100000e-001) (0, 1.99168130755424500000e-001) (1, -5.49962520599365230000e-002) (2, 8.76749083399772640000e-002) (3, -2.22109749913215640000e-001) (4, 7.49875605106353760000e-002) (5, -4.10425178706645970000e-002) (6, 1.41207188367843630000e-001) (7, 1.10915243625640870000e-001) (8, 2.10256248712539670000e-001) (9, -2.91961580514907840000e-001) (10, -1.62774577736854550000e-001) (11, 6.02455139160156250000e-001) (12, 4.31663870811462400000e-001) (13, -2.98533529043197630000e-001) (14, 1.59287571907043460000e-001) (15, 2.46352981775999070000e-002) (16, -1.31584703922271730000e-001) (17, 3.56939375400543210000e-001) (18, 8.56711342930793760000e-002) (19, 5.75757563114166260000e-001) (20, 5.67436397075653080000e-001) (21, 4.34610396623611450000e-001) (22, 3.72985124588012700000e-001) (23, 3.78969132900238040000e-001) (24, 2.08925321698188780000e-001) (25, 1.24669581651687620000e-001) (26, 1.33599698543548580000e-001) (27, 1.05166481807827950000e-002) (28, 7.11909353733062740000e-001) (29, 1.03481166064739230000e-001) (30, -2.76981536298990250000e-002) (31, 1.84692386537790300000e-002) (32, -6.22756518423557280000e-002) (0, -2.38320255279541020000e+000) (1, -9.13899898529052730000e-001) (2, -1.01186943054199220000e+000) (3, -1.64673781394958500000e+000) (4, -3.09927254915237430000e-001) (5, 3.93013432621955870000e-002) (6, -4.28027451038360600000e-001) (7, -1.03062081336975100000e+000) (8, -5.26247799396514890000e-001) (9, -1.83201885223388670000e+000) (10, -8.46372023224830630000e-002) (11, 2.01947474479675290000e+000) (12, 1.43532133102416990000e+000) (13, 1.91149795055389400000e+000) (14, 1.69606578350067140000e+000) (15, -6.97422981262207030000e-001) (16, 1.67606687545776370000e+000) (17, 4.15708637237548830000e+000) (18, 1.42576599121093750000e+000) (19, 1.01575493812561040000e+000) (20, 2.61107349395751950000e+000) (21, 1.28323829174041750000e+000) (22, 1.15302574634552000000e+000) (23, 9.70178663730621340000e-001) (24, 5.68197071552276610000e-001) (25, 5.44652521610260010000e-001) (26, 1.63532331585884090000e-001) (27, 1.29803836345672610000e-001) (28, 1.99660405516624450000e-001) (29, -2.41256561130285260000e-002) (30, -4.45158174261450770000e-003) (31, 4.21875007450580600000e-002) (32, -3.11369299888610840000e+000) (0, -2.98267304897308350000e-001) (1, 1.86117798089981080000e-001) (2, 9.47663858532905580000e-002) (3, 8.37181687355041500000e-001) (4, 5.69830127060413360000e-002) (5, 4.25422787666320800000e-001) (6, -6.53352320194244380000e-001) (7, -8.16648721694946290000e-001) (8, 3.36765646934509280000e-001) (9, 1.04084238409996030000e-001) (10, -4.02762830257415770000e-001) (11, 5.39476692676544190000e-001) (12, 7.48072862625122070000e-001) (13, 8.76904129981994630000e-002) (14, 3.55276286602020260000e-001) (15, -4.02243435382843020000e-001) (16, -5.73057830333709720000e-002) (17, 6.26057028770446780000e-001) (18, -5.25313735008239750000e-001) (19, -9.98140752315521240000e-001) (20, -1.59451272338628770000e-002) (21, 4.40094172954559330000e-001) (22, 5.07368385791778560000e-001) (23, 4.66395020484924320000e-001) (24, 4.24461811780929570000e-001) (25, 2.80123889446258540000e-001) (26, 6.17641620337963100000e-002) (27, 1.38597026467323300000e-001) (28, 7.88586616516113280000e-001) (29, 2.15992450714111330000e-001) (30, -6.63423463702201840000e-002) (31, -5.99060058593750000000e-002) (32, -3.11628699302673340000e-001) (0, 1.03526592254638670000e+000) (1, -9.20809030532836910000e-001) (2, -5.46156883239746090000e-001) (3, -9.32382345199584960000e-001) (4, -5.27026951313018800000e-001) (5, 8.47006440162658690000e-001) (6, -6.87206327915191650000e-001) (7, 3.44307988882064820000e-001) (8, 7.14162945747375490000e-001) (9, 9.59862232208251950000e-001) (10, 3.07108610868453980000e-001) (11, 6.97216331958770750000e-001) (12, 9.00406166911125180000e-002) (13, -1.55702978372573850000e-001) (14, -6.72411799430847170000e-001) (15, -4.21690076589584350000e-001) (16, 2.53569543361663820000e-001) (17, 3.21676045656204220000e-001) (18, -6.35286420583724980000e-002) (19, 3.66880185902118680000e-002) (20, 2.29561150074005130000e-001) (21, -1.39425545930862430000e-001) (22, 5.50925061106681820000e-002) (23, 2.22570627927780150000e-001) (24, -4.74139824509620670000e-002) (25, 4.66131195425987240000e-002) (26, -4.36036294559016820000e-004) (27, 7.35840871930122380000e-002) (28, 3.23131889104843140000e-001) (29, -9.19270887970924380000e-003) (30, 1.23640457168221470000e-002) (31, -6.04553222656250000000e-002) (32, -2.73182958364486690000e-001) (33, 1.35908842086791990000e+000) (34, -1.36211097240448000000e+000) (35, -1.95543587207794190000e+000) (36, -1.52716624736785890000e+000) (37, 8.29509496688842770000e-001) (38, -4.91183012723922730000e-001) (39, -2.82453268766403200000e-001) (40, -1.49105894565582280000e+000) (41, 7.56375789642333980000e-001) (42, 7.65456318855285640000e-001) (43, 1.48660421371459960000e+000) (44, 3.66686701774597170000e+000) (45, 1.20626199245452880000e+000) (46, 9.60019528865814210000e-001) (47, -1.44538789987564090000e-001) (33, -1.90300452709198000000e+000) (34, 2.33544301986694340000e+000) (35, 5.61452269554138180000e-001) (36, -2.09945976734161380000e-001) (37, 1.35254192352294920000e+000) (38, 4.15361213684082030000e+000) (39, -2.51913022994995120000e+000) (40, -3.84170413017272950000e+000) (41, -2.87673091888427730000e+000) (42, 2.04453206062316890000e+000) (43, -1.90658822655677800000e-001) (44, -3.19823646545410160000e+000) (45, -1.11303254961967470000e-002) (46, 2.29885533452034000000e-001) (47, -8.30564796924591060000e-001) (33, 1.49028789997100830000e+000) (34, -1.39325106143951420000e+000) (35, 1.93454384803771970000e-001) (36, 1.20241546630859370000e+000) (37, -8.07751655578613280000e-001) (38, -4.12722539901733400000e+000) (39, 3.59332704544067380000e+000) (40, 1.91961586475372310000e+000) (41, 2.07919406890869140000e+000) (42, -6.74661323428153990000e-002) (43, -6.02488100528717040000e-001) (44, -3.76941829919815060000e-001) (45, 2.06813454627990720000e+000) (46, 1.89520287513732910000e+000) (47, 3.23600798845291140000e-001) 
